digraph Tree {
node [shape=box, style="filled, rounded", color="black", fontname=helvetica] ;
edge [fontname=helvetica] ;
0 [label="Education <= 1.5\ngini = 0.5\nsamples = 4571\nvalue = [3596, 3642]\nclass = loan not accepted", fillcolor="#fcfeff"] ;
1 [label="CCAvg <= 2.95\ngini = 0.43\nsamples = 1495\nvalue = [1622, 760]\nclass = loan accepted", fillcolor="#f1bc96"] ;
0 -> 1 [labeldistance=2.5, labelangle=45, headlabel="True"] ;
2 [label="CD Account <= 0.5\ngini = 0.25\nsamples = 928\nvalue = [1253, 217]\nclass = loan accepted", fillcolor="#ea975b"] ;
1 -> 2 ;
3 [label="Family <= 2.5\ngini = 0.19\nsamples = 842\nvalue = [1208, 139]\nclass = loan accepted", fillcolor="#e88f50"] ;
2 -> 3 ;
4 [label="gini = 0.0\nsamples = 440\nvalue = [692, 0]\nclass = loan accepted", fillcolor="#e58139"] ;
3 -> 4 ;
5 [label="CCAvg <= 2.69\ngini = 0.33\nsamples = 402\nvalue = [516, 139]\nclass = loan accepted", fillcolor="#eca36e"] ;
3 -> 5 ;
6 [label="Family <= 3.5\ngini = 0.31\nsamples = 382\nvalue = [503, 120]\nclass = loan accepted", fillcolor="#eb9f68"] ;
5 -> 6 ;
7 [label="Securities Account <= 0.5\ngini = 0.34\nsamples = 181\nvalue = [234, 64]\nclass = loan accepted", fillcolor="#eca36f"] ;
6 -> 7 ;
8 [label="CCAvg <= 0.55\ngini = 0.35\nsamples = 172\nvalue = [222, 64]\nclass = loan accepted", fillcolor="#eca572"] ;
7 -> 8 ;
9 [label="gini = 0.0\nsamples = 22\nvalue = [43, 0]\nclass = loan accepted", fillcolor="#e58139"] ;
8 -> 9 ;
10 [label="Income <= 118.0\ngini = 0.39\nsamples = 150\nvalue = [179, 64]\nclass = loan accepted", fillcolor="#eeae80"] ;
8 -> 10 ;
11 [label="gini = 0.0\nsamples = 108\nvalue = [179, 0]\nclass = loan accepted", fillcolor="#e58139"] ;
10 -> 11 ;
12 [label="gini = 0.0\nsamples = 42\nvalue = [0, 64]\nclass = loan not accepted", fillcolor="#399de5"] ;
10 -> 12 ;
13 [label="gini = 0.0\nsamples = 9\nvalue = [12, 0]\nclass = loan accepted", fillcolor="#e58139"] ;
7 -> 13 ;
14 [label="CCAvg <= 2.05\ngini = 0.29\nsamples = 201\nvalue = [269, 56]\nclass = loan accepted", fillcolor="#ea9b62"] ;
6 -> 14 ;
15 [label="Securities Account <= 0.5\ngini = 0.32\nsamples = 173\nvalue = [224, 56]\nclass = loan accepted", fillcolor="#eca06a"] ;
14 -> 15 ;
16 [label="Income <= 101.0\ngini = 0.35\nsamples = 158\nvalue = [196, 56]\nclass = loan accepted", fillcolor="#eca572"] ;
15 -> 16 ;
17 [label="gini = 0.0\nsamples = 117\nvalue = [196, 0]\nclass = loan accepted", fillcolor="#e58139"] ;
16 -> 17 ;
18 [label="gini = 0.0\nsamples = 41\nvalue = [0, 56]\nclass = loan not accepted", fillcolor="#399de5"] ;
16 -> 18 ;
19 [label="gini = 0.0\nsamples = 15\nvalue = [28, 0]\nclass = loan accepted", fillcolor="#e58139"] ;
15 -> 19 ;
20 [label="gini = 0.0\nsamples = 28\nvalue = [45, 0]\nclass = loan accepted", fillcolor="#e58139"] ;
14 -> 20 ;
21 [label="CCAvg <= 2.75\ngini = 0.48\nsamples = 20\nvalue = [13, 19]\nclass = loan not accepted", fillcolor="#c0e0f7"] ;
5 -> 21 ;
22 [label="gini = 0.0\nsamples = 11\nvalue = [0, 19]\nclass = loan not accepted", fillcolor="#399de5"] ;
21 -> 22 ;
23 [label="gini = 0.0\nsamples = 9\nvalue = [13, 0]\nclass = loan accepted", fillcolor="#e58139"] ;
21 -> 23 ;
24 [label="CCAvg <= 2.26\ngini = 0.46\nsamples = 86\nvalue = [45, 78]\nclass = loan not accepted", fillcolor="#abd6f4"] ;
2 -> 24 ;
25 [label="Mortgage <= 337.5\ngini = 0.39\nsamples = 76\nvalue = [28, 78]\nclass = loan not accepted", fillcolor="#80c0ee"] ;
24 -> 25 ;
26 [label="Income <= 118.5\ngini = 0.46\nsamples = 55\nvalue = [27, 49]\nclass = loan not accepted", fillcolor="#a6d3f3"] ;
25 -> 26 ;
27 [label="gini = 0.0\nsamples = 22\nvalue = [27, 0]\nclass = loan accepted", fillcolor="#e58139"] ;
26 -> 27 ;
28 [label="gini = 0.0\nsamples = 33\nvalue = [0, 49]\nclass = loan not accepted", fillcolor="#399de5"] ;
26 -> 28 ;
29 [label="Family <= 2.5\ngini = 0.06\nsamples = 21\nvalue = [1, 29]\nclass = loan not accepted", fillcolor="#40a0e6"] ;
25 -> 29 ;
30 [label="gini = 0.0\nsamples = 1\nvalue = [1, 0]\nclass = loan accepted", fillcolor="#e58139"] ;
29 -> 30 ;
31 [label="gini = 0.0\nsamples = 20\nvalue = [0, 29]\nclass = loan not accepted", fillcolor="#399de5"] ;
29 -> 31 ;
32 [label="gini = 0.0\nsamples = 10\nvalue = [17, 0]\nclass = loan accepted", fillcolor="#e58139"] ;
24 -> 32 ;
33 [label="CD Account <= 0.5\ngini = 0.48\nsamples = 567\nvalue = [369, 543]\nclass = loan not accepted", fillcolor="#c0e0f7"] ;
1 -> 33 ;
34 [label="Income <= 83.5\ngini = 0.5\nsamples = 450\nvalue = [355, 354]\nclass = loan accepted", fillcolor="#fffffe"] ;
33 -> 34 ;
35 [label="Family <= 2.5\ngini = 0.38\nsamples = 75\nvalue = [33, 97]\nclass = loan not accepted", fillcolor="#7cbeee"] ;
34 -> 35 ;
36 [label="Mortgage <= 231.5\ngini = 0.22\nsamples = 57\nvalue = [13, 88]\nclass = loan not accepted", fillcolor="#56abe9"] ;
35 -> 36 ;
37 [label="Income <= 82.0\ngini = 0.21\nsamples = 56\nvalue = [12, 88]\nclass = loan not accepted", fillcolor="#54aae9"] ;
36 -> 37 ;
38 [label="CCAvg <= 3.6\ngini = 0.34\nsamples = 33\nvalue = [12, 43]\nclass = loan not accepted", fillcolor="#70b8ec"] ;
37 -> 38 ;
39 [label="Mortgage <= 66.0\ngini = 0.12\nsamples = 27\nvalue = [3, 43]\nclass = loan not accepted", fillcolor="#47a4e7"] ;
38 -> 39 ;
40 [label="Income <= 78.0\ngini = 0.24\nsamples = 13\nvalue = [3, 18]\nclass = loan not accepted", fillcolor="#5aade9"] ;
39 -> 40 ;
41 [label="CCAvg <= 3.35\ngini = 0.1\nsamples = 11\nvalue = [1, 18]\nclass = loan not accepted", fillcolor="#44a2e6"] ;
40 -> 41 ;
42 [label="gini = 0.0\nsamples = 1\nvalue = [1, 0]\nclass = loan accepted", fillcolor="#e58139"] ;
41 -> 42 ;
43 [label="gini = 0.0\nsamples = 10\nvalue = [0, 18]\nclass = loan not accepted", fillcolor="#399de5"] ;
41 -> 43 ;
44 [label="gini = 0.0\nsamples = 2\nvalue = [2, 0]\nclass = loan accepted", fillcolor="#e58139"] ;
40 -> 44 ;
45 [label="gini = 0.0\nsamples = 14\nvalue = [0, 25]\nclass = loan not accepted", fillcolor="#399de5"] ;
39 -> 45 ;
46 [label="gini = 0.0\nsamples = 6\nvalue = [9, 0]\nclass = loan accepted", fillcolor="#e58139"] ;
38 -> 46 ;
47 [label="gini = 0.0\nsamples = 23\nvalue = [0, 45]\nclass = loan not accepted", fillcolor="#399de5"] ;
37 -> 47 ;
48 [label="gini = 0.0\nsamples = 1\nvalue = [1, 0]\nclass = loan accepted", fillcolor="#e58139"] ;
36 -> 48 ;
49 [label="Family <= 3.5\ngini = 0.43\nsamples = 18\nvalue = [20, 9]\nclass = loan accepted", fillcolor="#f1ba92"] ;
35 -> 49 ;
50 [label="gini = 0.0\nsamples = 5\nvalue = [12, 0]\nclass = loan accepted", fillcolor="#e58139"] ;
49 -> 50 ;
51 [label="CCAvg <= 3.25\ngini = 0.5\nsamples = 13\nvalue = [8, 9]\nclass = loan not accepted", fillcolor="#e9f4fc"] ;
49 -> 51 ;
52 [label="gini = 0.0\nsamples = 7\nvalue = [0, 9]\nclass = loan not accepted", fillcolor="#399de5"] ;
51 -> 52 ;
53 [label="gini = 0.0\nsamples = 6\nvalue = [8, 0]\nclass = loan accepted", fillcolor="#e58139"] ;
51 -> 53 ;
54 [label="Family <= 2.5\ngini = 0.49\nsamples = 375\nvalue = [322, 257]\nclass = loan accepted", fillcolor="#fae6d7"] ;
34 -> 54 ;
55 [label="CCAvg <= 3.75\ngini = 0.1\nsamples = 208\nvalue = [306, 18]\nclass = loan accepted", fillcolor="#e78845"] ;
54 -> 55 ;
56 [label="Income <= 104.5\ngini = 0.38\nsamples = 48\nvalue = [52, 18]\nclass = loan accepted", fillcolor="#eead7e"] ;
55 -> 56 ;
57 [label="Securities Account <= 0.5\ngini = 0.3\nsamples = 13\nvalue = [4, 18]\nclass = loan not accepted", fillcolor="#65b3eb"] ;
56 -> 57 ;
58 [label="CCAvg <= 3.55\ngini = 0.24\nsamples = 12\nvalue = [3, 18]\nclass = loan not accepted", fillcolor="#5aade9"] ;
57 -> 58 ;
59 [label="gini = 0.0\nsamples = 3\nvalue = [3, 0]\nclass = loan accepted", fillcolor="#e58139"] ;
58 -> 59 ;
60 [label="gini = 0.0\nsamples = 9\nvalue = [0, 18]\nclass = loan not accepted", fillcolor="#399de5"] ;
58 -> 60 ;
61 [label="gini = 0.0\nsamples = 1\nvalue = [1, 0]\nclass = loan accepted", fillcolor="#e58139"] ;
57 -> 61 ;
62 [label="gini = 0.0\nsamples = 35\nvalue = [48, 0]\nclass = loan accepted", fillcolor="#e58139"] ;
56 -> 62 ;
63 [label="gini = 0.0\nsamples = 160\nvalue = [254, 0]\nclass = loan accepted", fillcolor="#e58139"] ;
55 -> 63 ;
64 [label="Income <= 102.0\ngini = 0.12\nsamples = 167\nvalue = [16, 239]\nclass = loan not accepted", fillcolor="#46a4e7"] ;
54 -> 64 ;
65 [label="gini = 0.0\nsamples = 6\nvalue = [10, 0]\nclass = loan accepted", fillcolor="#e58139"] ;
64 -> 65 ;
66 [label="Securities Account <= 0.5\ngini = 0.05\nsamples = 161\nvalue = [6, 239]\nclass = loan not accepted", fillcolor="#3e9fe6"] ;
64 -> 66 ;
67 [label="Mortgage <= 70.0\ngini = 0.03\nsamples = 151\nvalue = [4, 224]\nclass = loan not accepted", fillcolor="#3d9fe5"] ;
66 -> 67 ;
68 [label="CCAvg <= 4.55\ngini = 0.08\nsamples = 70\nvalue = [4, 94]\nclass = loan not accepted", fillcolor="#41a1e6"] ;
67 -> 68 ;
69 [label="Income <= 108.5\ngini = 0.17\nsamples = 31\nvalue = [4, 38]\nclass = loan not accepted", fillcolor="#4ea7e8"] ;
68 -> 69 ;
70 [label="Income <= 105.5\ngini = 0.42\nsamples = 6\nvalue = [3, 7]\nclass = loan not accepted", fillcolor="#8ec7f0"] ;
69 -> 70 ;
71 [label="gini = 0.0\nsamples = 5\nvalue = [0, 7]\nclass = loan not accepted", fillcolor="#399de5"] ;
70 -> 71 ;
72 [label="gini = 0.0\nsamples = 1\nvalue = [3, 0]\nclass = loan accepted", fillcolor="#e58139"] ;
70 -> 72 ;
73 [label="CCAvg <= 4.25\ngini = 0.06\nsamples = 25\nvalue = [1, 31]\nclass = loan not accepted", fillcolor="#3fa0e6"] ;
69 -> 73 ;
74 [label="gini = 0.0\nsamples = 18\nvalue = [0, 24]\nclass = loan not accepted", fillcolor="#399de5"] ;
73 -> 74 ;
75 [label="Income <= 141.5\ngini = 0.22\nsamples = 7\nvalue = [1, 7]\nclass = loan not accepted", fillcolor="#55abe9"] ;
73 -> 75 ;
76 [label="gini = 0.0\nsamples = 1\nvalue = [1, 0]\nclass = loan accepted", fillcolor="#e58139"] ;
75 -> 76 ;
77 [label="gini = 0.0\nsamples = 6\nvalue = [0, 7]\nclass = loan not accepted", fillcolor="#399de5"] ;
75 -> 77 ;
78 [label="gini = 0.0\nsamples = 39\nvalue = [0, 56]\nclass = loan not accepted", fillcolor="#399de5"] ;
68 -> 78 ;
79 [label="gini = 0.0\nsamples = 81\nvalue = [0, 130]\nclass = loan not accepted", fillcolor="#399de5"] ;
67 -> 79 ;
80 [label="Income <= 132.0\ngini = 0.21\nsamples = 10\nvalue = [2, 15]\nclass = loan not accepted", fillcolor="#53aae8"] ;
66 -> 80 ;
81 [label="gini = 0.0\nsamples = 1\nvalue = [2, 0]\nclass = loan accepted", fillcolor="#e58139"] ;
80 -> 81 ;
82 [label="gini = 0.0\nsamples = 9\nvalue = [0, 15]\nclass = loan not accepted", fillcolor="#399de5"] ;
80 -> 82 ;
83 [label="Income <= 179.5\ngini = 0.13\nsamples = 117\nvalue = [14, 189]\nclass = loan not accepted", fillcolor="#48a4e7"] ;
33 -> 83 ;
84 [label="Family <= 2.5\ngini = 0.11\nsamples = 116\nvalue = [12, 189]\nclass = loan not accepted", fillcolor="#46a3e7"] ;
83 -> 84 ;
85 [label="Income <= 107.0\ngini = 0.31\nsamples = 41\nvalue = [12, 51]\nclass = loan not accepted", fillcolor="#68b4eb"] ;
84 -> 85 ;
86 [label="Income <= 96.0\ngini = 0.07\nsamples = 34\nvalue = [2, 51]\nclass = loan not accepted", fillcolor="#41a1e6"] ;
85 -> 86 ;
87 [label="Income <= 91.5\ngini = 0.22\nsamples = 9\nvalue = [2, 14]\nclass = loan not accepted", fillcolor="#55abe9"] ;
86 -> 87 ;
88 [label="gini = 0.0\nsamples = 8\nvalue = [0, 14]\nclass = loan not accepted", fillcolor="#399de5"] ;
87 -> 88 ;
89 [label="gini = 0.0\nsamples = 1\nvalue = [2, 0]\nclass = loan accepted", fillcolor="#e58139"] ;
87 -> 89 ;
90 [label="gini = 0.0\nsamples = 25\nvalue = [0, 37]\nclass = loan not accepted", fillcolor="#399de5"] ;
86 -> 90 ;
91 [label="gini = 0.0\nsamples = 7\nvalue = [10, 0]\nclass = loan accepted", fillcolor="#e58139"] ;
85 -> 91 ;
92 [label="gini = 0.0\nsamples = 75\nvalue = [0, 138]\nclass = loan not accepted", fillcolor="#399de5"] ;
84 -> 92 ;
93 [label="gini = 0.0\nsamples = 1\nvalue = [2, 0]\nclass = loan accepted", fillcolor="#e58139"] ;
83 -> 93 ;
94 [label="Income <= 92.5\ngini = 0.48\nsamples = 3076\nvalue = [1974, 2882]\nclass = loan not accepted", fillcolor="#c1e0f7"] ;
0 -> 94 [labeldistance=2.5, labelangle=-45, headlabel="False"] ;
95 [label="CCAvg <= 3.05\ngini = 0.09\nsamples = 1233\nvalue = [1844, 93]\nclass = loan accepted", fillcolor="#e68743"] ;
94 -> 95 ;
96 [label="Education <= 2.5\ngini = 0.01\nsamples = 1138\nvalue = [1787, 5]\nclass = loan accepted", fillcolor="#e5813a"] ;
95 -> 96 ;
97 [label="gini = 0.0\nsamples = 562\nvalue = [857, 0]\nclass = loan accepted", fillcolor="#e58139"] ;
96 -> 97 ;
98 [label="Income <= 63.5\ngini = 0.01\nsamples = 576\nvalue = [930, 5]\nclass = loan accepted", fillcolor="#e5823a"] ;
96 -> 98 ;
99 [label="gini = 0.0\nsamples = 425\nvalue = [699, 0]\nclass = loan accepted", fillcolor="#e58139"] ;
98 -> 99 ;
100 [label="Mortgage <= 220.0\ngini = 0.04\nsamples = 151\nvalue = [231, 5]\nclass = loan accepted", fillcolor="#e6843d"] ;
98 -> 100 ;
101 [label="gini = 0.0\nsamples = 129\nvalue = [196, 0]\nclass = loan accepted", fillcolor="#e58139"] ;
100 -> 101 ;
102 [label="Securities Account <= 0.5\ngini = 0.22\nsamples = 22\nvalue = [35, 5]\nclass = loan accepted", fillcolor="#e99355"] ;
100 -> 102 ;
103 [label="Mortgage <= 223.0\ngini = 0.24\nsamples = 20\nvalue = [31, 5]\nclass = loan accepted", fillcolor="#e99559"] ;
102 -> 103 ;
104 [label="gini = 0.0\nsamples = 4\nvalue = [0, 5]\nclass = loan not accepted", fillcolor="#399de5"] ;
103 -> 104 ;
105 [label="gini = 0.0\nsamples = 16\nvalue = [31, 0]\nclass = loan accepted", fillcolor="#e58139"] ;
103 -> 105 ;
106 [label="gini = 0.0\nsamples = 2\nvalue = [4, 0]\nclass = loan accepted", fillcolor="#e58139"] ;
102 -> 106 ;
107 [label="CD Account <= 0.5\ngini = 0.48\nsamples = 95\nvalue = [57, 88]\nclass = loan not accepted", fillcolor="#b9dcf6"] ;
95 -> 107 ;
108 [label="Education <= 2.5\ngini = 0.5\nsamples = 69\nvalue = [57, 49]\nclass = loan accepted", fillcolor="#fbede3"] ;
107 -> 108 ;
109 [label="Mortgage <= 52.0\ngini = 0.37\nsamples = 34\nvalue = [13, 40]\nclass = loan not accepted", fillcolor="#79bded"] ;
108 -> 109 ;
110 [label="Securities Account <= 0.5\ngini = 0.34\nsamples = 32\nvalue = [11, 40]\nclass = loan not accepted", fillcolor="#6fb8ec"] ;
109 -> 110 ;
111 [label="Family <= 3.5\ngini = 0.3\nsamples = 31\nvalue = [9, 40]\nclass = loan not accepted", fillcolor="#66b3eb"] ;
110 -> 111 ;
112 [label="Family <= 1.5\ngini = 0.17\nsamples = 26\nvalue = [4, 40]\nclass = loan not accepted", fillcolor="#4da7e8"] ;
111 -> 112 ;
113 [label="Income <= 86.0\ngini = 0.28\nsamples = 13\nvalue = [4, 20]\nclass = loan not accepted", fillcolor="#61b1ea"] ;
112 -> 113 ;
114 [label="gini = 0.0\nsamples = 3\nvalue = [4, 0]\nclass = loan accepted", fillcolor="#e58139"] ;
113 -> 114 ;
115 [label="gini = 0.0\nsamples = 10\nvalue = [0, 20]\nclass = loan not accepted", fillcolor="#399de5"] ;
113 -> 115 ;
116 [label="gini = 0.0\nsamples = 13\nvalue = [0, 20]\nclass = loan not accepted", fillcolor="#399de5"] ;
112 -> 116 ;
117 [label="gini = 0.0\nsamples = 5\nvalue = [5, 0]\nclass = loan accepted", fillcolor="#e58139"] ;
111 -> 117 ;
118 [label="gini = 0.0\nsamples = 1\nvalue = [2, 0]\nclass = loan accepted", fillcolor="#e58139"] ;
110 -> 118 ;
119 [label="gini = 0.0\nsamples = 2\nvalue = [2, 0]\nclass = loan accepted", fillcolor="#e58139"] ;
109 -> 119 ;
120 [label="CCAvg <= 3.65\ngini = 0.28\nsamples = 35\nvalue = [44, 9]\nclass = loan accepted", fillcolor="#ea9b61"] ;
108 -> 120 ;
121 [label="Mortgage <= 70.5\ngini = 0.5\nsamples = 13\nvalue = [9, 9]\nclass = loan accepted", fillcolor="#ffffff"] ;
120 -> 121 ;
122 [label="CCAvg <= 3.3\ngini = 0.48\nsamples = 10\nvalue = [6, 9]\nclass = loan not accepted", fillcolor="#bddef6"] ;
121 -> 122 ;
123 [label="gini = 0.0\nsamples = 3\nvalue = [3, 0]\nclass = loan accepted", fillcolor="#e58139"] ;
122 -> 123 ;
124 [label="Income <= 80.5\ngini = 0.38\nsamples = 7\nvalue = [3, 9]\nclass = loan not accepted", fillcolor="#7bbeee"] ;
122 -> 124 ;
125 [label="gini = 0.0\nsamples = 2\nvalue = [3, 0]\nclass = loan accepted", fillcolor="#e58139"] ;
124 -> 125 ;
126 [label="gini = 0.0\nsamples = 5\nvalue = [0, 9]\nclass = loan not accepted", fillcolor="#399de5"] ;
124 -> 126 ;
127 [label="gini = 0.0\nsamples = 3\nvalue = [3, 0]\nclass = loan accepted", fillcolor="#e58139"] ;
121 -> 127 ;
128 [label="gini = 0.0\nsamples = 22\nvalue = [35, 0]\nclass = loan accepted", fillcolor="#e58139"] ;
120 -> 128 ;
129 [label="gini = 0.0\nsamples = 26\nvalue = [0, 39]\nclass = loan not accepted", fillcolor="#399de5"] ;
107 -> 129 ;
130 [label="Income <= 114.5\ngini = 0.09\nsamples = 1843\nvalue = [130, 2789]\nclass = loan not accepted", fillcolor="#42a2e6"] ;
94 -> 130 ;
131 [label="Securities Account <= 0.5\ngini = 0.37\nsamples = 336\nvalue = [128, 388]\nclass = loan not accepted", fillcolor="#7abdee"] ;
130 -> 131 ;
132 [label="Income <= 110.5\ngini = 0.4\nsamples = 281\nvalue = [121, 321]\nclass = loan not accepted", fillcolor="#84c2ef"] ;
131 -> 132 ;
133 [label="CCAvg <= 2.45\ngini = 0.44\nsamples = 186\nvalue = [96, 194]\nclass = loan not accepted", fillcolor="#9bcdf2"] ;
132 -> 133 ;
134 [label="Income <= 106.5\ngini = 0.21\nsamples = 51\nvalue = [74, 10]\nclass = loan accepted", fillcolor="#e99254"] ;
133 -> 134 ;
135 [label="gini = 0.0\nsamples = 37\nvalue = [58, 0]\nclass = loan accepted", fillcolor="#e58139"] ;
134 -> 135 ;
136 [label="CCAvg <= 1.85\ngini = 0.47\nsamples = 14\nvalue = [16, 10]\nclass = loan accepted", fillcolor="#f5d0b5"] ;
134 -> 136 ;
137 [label="gini = 0.0\nsamples = 6\nvalue = [11, 0]\nclass = loan accepted", fillcolor="#e58139"] ;
136 -> 137 ;
138 [label="Mortgage <= 157.0\ngini = 0.44\nsamples = 8\nvalue = [5, 10]\nclass = loan not accepted", fillcolor="#9ccef2"] ;
136 -> 138 ;
139 [label="CCAvg <= 2.15\ngini = 0.28\nsamples = 7\nvalue = [2, 10]\nclass = loan not accepted", fillcolor="#61b1ea"] ;
138 -> 139 ;
140 [label="gini = 0.0\nsamples = 6\nvalue = [0, 10]\nclass = loan not accepted", fillcolor="#399de5"] ;
139 -> 140 ;
141 [label="gini = 0.0\nsamples = 1\nvalue = [2, 0]\nclass = loan accepted", fillcolor="#e58139"] ;
139 -> 141 ;
142 [label="gini = 0.0\nsamples = 1\nvalue = [3, 0]\nclass = loan accepted", fillcolor="#e58139"] ;
138 -> 142 ;
143 [label="Income <= 94.5\ngini = 0.19\nsamples = 135\nvalue = [22, 184]\nclass = loan not accepted", fillcolor="#51a9e8"] ;
133 -> 143 ;
144 [label="CCAvg <= 2.9\ngini = 0.41\nsamples = 13\nvalue = [7, 17]\nclass = loan not accepted", fillcolor="#8bc5f0"] ;
143 -> 144 ;
145 [label="gini = 0.0\nsamples = 3\nvalue = [7, 0]\nclass = loan accepted", fillcolor="#e58139"] ;
144 -> 145 ;
146 [label="gini = 0.0\nsamples = 10\nvalue = [0, 17]\nclass = loan not accepted", fillcolor="#399de5"] ;
144 -> 146 ;
147 [label="Mortgage <= 191.5\ngini = 0.15\nsamples = 122\nvalue = [15, 167]\nclass = loan not accepted", fillcolor="#4ba6e7"] ;
143 -> 147 ;
148 [label="CD Account <= 0.5\ngini = 0.1\nsamples = 98\nvalue = [8, 136]\nclass = loan not accepted", fillcolor="#45a3e7"] ;
147 -> 148 ;
149 [label="Income <= 109.0\ngini = 0.09\nsamples = 97\nvalue = [7, 136]\nclass = loan not accepted", fillcolor="#43a2e6"] ;
148 -> 149 ;
150 [label="Income <= 106.0\ngini = 0.11\nsamples = 83\nvalue = [7, 116]\nclass = loan not accepted", fillcolor="#45a3e7"] ;
149 -> 150 ;
151 [label="CCAvg <= 3.5\ngini = 0.08\nsamples = 81\nvalue = [5, 116]\nclass = loan not accepted", fillcolor="#42a1e6"] ;
150 -> 151 ;
152 [label="Income <= 97.0\ngini = 0.28\nsamples = 12\nvalue = [3, 15]\nclass = loan not accepted", fillcolor="#61b1ea"] ;
151 -> 152 ;
153 [label="gini = 0.0\nsamples = 1\nvalue = [2, 0]\nclass = loan accepted", fillcolor="#e58139"] ;
152 -> 153 ;
154 [label="Income <= 100.5\ngini = 0.12\nsamples = 11\nvalue = [1, 15]\nclass = loan not accepted", fillcolor="#46a4e7"] ;
152 -> 154 ;
155 [label="gini = 0.0\nsamples = 10\nvalue = [0, 15]\nclass = loan not accepted", fillcolor="#399de5"] ;
154 -> 155 ;
156 [label="gini = 0.0\nsamples = 1\nvalue = [1, 0]\nclass = loan accepted", fillcolor="#e58139"] ;
154 -> 156 ;
157 [label="Family <= 2.5\ngini = 0.04\nsamples = 69\nvalue = [2, 101]\nclass = loan not accepted", fillcolor="#3d9fe6"] ;
151 -> 157 ;
158 [label="CCAvg <= 4.35\ngini = 0.07\nsamples = 34\nvalue = [2, 50]\nclass = loan not accepted", fillcolor="#41a1e6"] ;
157 -> 158 ;
159 [label="Family <= 1.5\ngini = 0.04\nsamples = 33\nvalue = [1, 50]\nclass = loan not accepted", fillcolor="#3d9fe6"] ;
158 -> 159 ;
160 [label="Education <= 2.5\ngini = 0.06\nsamples = 18\nvalue = [1, 29]\nclass = loan not accepted", fillcolor="#40a0e6"] ;
159 -> 160 ;
161 [label="gini = 0.0\nsamples = 6\nvalue = [0, 8]\nclass = loan not accepted", fillcolor="#399de5"] ;
160 -> 161 ;
162 [label="CCAvg <= 3.95\ngini = 0.09\nsamples = 12\nvalue = [1, 21]\nclass = loan not accepted", fillcolor="#42a2e6"] ;
160 -> 162 ;
163 [label="gini = 0.0\nsamples = 11\nvalue = [0, 21]\nclass = loan not accepted", fillcolor="#399de5"] ;
162 -> 163 ;
164 [label="gini = 0.0\nsamples = 1\nvalue = [1, 0]\nclass = loan accepted", fillcolor="#e58139"] ;
162 -> 164 ;
165 [label="gini = 0.0\nsamples = 15\nvalue = [0, 21]\nclass = loan not accepted", fillcolor="#399de5"] ;
159 -> 165 ;
166 [label="gini = 0.0\nsamples = 1\nvalue = [1, 0]\nclass = loan accepted", fillcolor="#e58139"] ;
158 -> 166 ;
167 [label="gini = 0.0\nsamples = 35\nvalue = [0, 51]\nclass = loan not accepted", fillcolor="#399de5"] ;
157 -> 167 ;
168 [label="gini = 0.0\nsamples = 2\nvalue = [2, 0]\nclass = loan accepted", fillcolor="#e58139"] ;
150 -> 168 ;
169 [label="gini = 0.0\nsamples = 14\nvalue = [0, 20]\nclass = loan not accepted", fillcolor="#399de5"] ;
149 -> 169 ;
170 [label="gini = 0.0\nsamples = 1\nvalue = [1, 0]\nclass = loan accepted", fillcolor="#e58139"] ;
148 -> 170 ;
171 [label="Mortgage <= 252.0\ngini = 0.3\nsamples = 24\nvalue = [7, 31]\nclass = loan not accepted", fillcolor="#66b3eb"] ;
147 -> 171 ;
172 [label="gini = 0.0\nsamples = 2\nvalue = [5, 0]\nclass = loan accepted", fillcolor="#e58139"] ;
171 -> 172 ;
173 [label="Income <= 97.0\ngini = 0.11\nsamples = 22\nvalue = [2, 31]\nclass = loan not accepted", fillcolor="#46a3e7"] ;
171 -> 173 ;
174 [label="gini = 0.0\nsamples = 1\nvalue = [2, 0]\nclass = loan accepted", fillcolor="#e58139"] ;
173 -> 174 ;
175 [label="gini = 0.0\nsamples = 21\nvalue = [0, 31]\nclass = loan not accepted", fillcolor="#399de5"] ;
173 -> 175 ;
176 [label="CCAvg <= 2.45\ngini = 0.27\nsamples = 95\nvalue = [25, 127]\nclass = loan not accepted", fillcolor="#60b0ea"] ;
132 -> 176 ;
177 [label="Education <= 2.5\ngini = 0.43\nsamples = 41\nvalue = [24, 52]\nclass = loan not accepted", fillcolor="#94caf1"] ;
176 -> 177 ;
178 [label="Family <= 2.5\ngini = 0.41\nsamples = 15\nvalue = [7, 17]\nclass = loan not accepted", fillcolor="#8bc5f0"] ;
177 -> 178 ;
179 [label="CCAvg <= 1.7\ngini = 0.26\nsamples = 13\nvalue = [3, 17]\nclass = loan not accepted", fillcolor="#5caeea"] ;
178 -> 179 ;
180 [label="Income <= 111.5\ngini = 0.1\nsamples = 12\nvalue = [1, 17]\nclass = loan not accepted", fillcolor="#45a3e7"] ;
179 -> 180 ;
181 [label="gini = 0.0\nsamples = 1\nvalue = [1, 0]\nclass = loan accepted", fillcolor="#e58139"] ;
180 -> 181 ;
182 [label="gini = 0.0\nsamples = 11\nvalue = [0, 17]\nclass = loan not accepted", fillcolor="#399de5"] ;
180 -> 182 ;
183 [label="gini = 0.0\nsamples = 1\nvalue = [2, 0]\nclass = loan accepted", fillcolor="#e58139"] ;
179 -> 183 ;
184 [label="gini = 0.0\nsamples = 2\nvalue = [4, 0]\nclass = loan accepted", fillcolor="#e58139"] ;
178 -> 184 ;
185 [label="CCAvg <= 1.45\ngini = 0.44\nsamples = 26\nvalue = [17, 35]\nclass = loan not accepted", fillcolor="#99cdf2"] ;
177 -> 185 ;
186 [label="Family <= 1.5\ngini = 0.15\nsamples = 18\nvalue = [3, 35]\nclass = loan not accepted", fillcolor="#4aa5e7"] ;
185 -> 186 ;
187 [label="gini = 0.0\nsamples = 2\nvalue = [3, 0]\nclass = loan accepted", fillcolor="#e58139"] ;
186 -> 187 ;
188 [label="gini = 0.0\nsamples = 16\nvalue = [0, 35]\nclass = loan not accepted", fillcolor="#399de5"] ;
186 -> 188 ;
189 [label="gini = 0.0\nsamples = 8\nvalue = [14, 0]\nclass = loan accepted", fillcolor="#e58139"] ;
185 -> 189 ;
190 [label="CD Account <= 0.5\ngini = 0.03\nsamples = 54\nvalue = [1, 75]\nclass = loan not accepted", fillcolor="#3c9ee5"] ;
176 -> 190 ;
191 [label="Income <= 112.5\ngini = 0.03\nsamples = 49\nvalue = [1, 69]\nclass = loan not accepted", fillcolor="#3c9ee5"] ;
190 -> 191 ;
192 [label="gini = 0.0\nsamples = 25\nvalue = [0, 36]\nclass = loan not accepted", fillcolor="#399de5"] ;
191 -> 192 ;
193 [label="CCAvg <= 3.8\ngini = 0.06\nsamples = 24\nvalue = [1, 33]\nclass = loan not accepted", fillcolor="#3fa0e6"] ;
191 -> 193 ;
194 [label="CCAvg <= 3.35\ngini = 0.12\nsamples = 12\nvalue = [1, 14]\nclass = loan not accepted", fillcolor="#47a4e7"] ;
193 -> 194 ;
195 [label="gini = 0.0\nsamples = 11\nvalue = [0, 14]\nclass = loan not accepted", fillcolor="#399de5"] ;
194 -> 195 ;
196 [label="gini = 0.0\nsamples = 1\nvalue = [1, 0]\nclass = loan accepted", fillcolor="#e58139"] ;
194 -> 196 ;
197 [label="gini = 0.0\nsamples = 12\nvalue = [0, 19]\nclass = loan not accepted", fillcolor="#399de5"] ;
193 -> 197 ;
198 [label="gini = 0.0\nsamples = 5\nvalue = [0, 6]\nclass = loan not accepted", fillcolor="#399de5"] ;
190 -> 198 ;
199 [label="Family <= 3.5\ngini = 0.17\nsamples = 55\nvalue = [7, 67]\nclass = loan not accepted", fillcolor="#4ea7e8"] ;
131 -> 199 ;
200 [label="CD Account <= 0.5\ngini = 0.11\nsamples = 53\nvalue = [4, 67]\nclass = loan not accepted", fillcolor="#45a3e7"] ;
199 -> 200 ;
201 [label="Family <= 2.5\ngini = 0.32\nsamples = 9\nvalue = [2, 8]\nclass = loan not accepted", fillcolor="#6ab6ec"] ;
200 -> 201 ;
202 [label="CCAvg <= 3.27\ngini = 0.2\nsamples = 8\nvalue = [1, 8]\nclass = loan not accepted", fillcolor="#52a9e8"] ;
201 -> 202 ;
203 [label="gini = 0.0\nsamples = 7\nvalue = [0, 8]\nclass = loan not accepted", fillcolor="#399de5"] ;
202 -> 203 ;
204 [label="gini = 0.0\nsamples = 1\nvalue = [1, 0]\nclass = loan accepted", fillcolor="#e58139"] ;
202 -> 204 ;
205 [label="gini = 0.0\nsamples = 1\nvalue = [1, 0]\nclass = loan accepted", fillcolor="#e58139"] ;
201 -> 205 ;
206 [label="Family <= 1.5\ngini = 0.06\nsamples = 44\nvalue = [2, 59]\nclass = loan not accepted", fillcolor="#40a0e6"] ;
200 -> 206 ;
207 [label="Mortgage <= 345.0\ngini = 0.07\nsamples = 20\nvalue = [1, 26]\nclass = loan not accepted", fillcolor="#41a1e6"] ;
206 -> 207 ;
208 [label="gini = 0.0\nsamples = 19\nvalue = [0, 26]\nclass = loan not accepted", fillcolor="#399de5"] ;
207 -> 208 ;
209 [label="gini = 0.0\nsamples = 1\nvalue = [1, 0]\nclass = loan accepted", fillcolor="#e58139"] ;
207 -> 209 ;
210 [label="Family <= 2.5\ngini = 0.06\nsamples = 24\nvalue = [1, 33]\nclass = loan not accepted", fillcolor="#3fa0e6"] ;
206 -> 210 ;
211 [label="gini = 0.0\nsamples = 5\nvalue = [0, 5]\nclass = loan not accepted", fillcolor="#399de5"] ;
210 -> 211 ;
212 [label="Income <= 110.5\ngini = 0.07\nsamples = 19\nvalue = [1, 28]\nclass = loan not accepted", fillcolor="#40a0e6"] ;
210 -> 212 ;
213 [label="gini = 0.0\nsamples = 18\nvalue = [0, 28]\nclass = loan not accepted", fillcolor="#399de5"] ;
212 -> 213 ;
214 [label="gini = 0.0\nsamples = 1\nvalue = [1, 0]\nclass = loan accepted", fillcolor="#e58139"] ;
212 -> 214 ;
215 [label="gini = 0.0\nsamples = 2\nvalue = [3, 0]\nclass = loan accepted", fillcolor="#e58139"] ;
199 -> 215 ;
216 [label="Mortgage <= 186.5\ngini = 0.0\nsamples = 1507\nvalue = [2, 2401]\nclass = loan not accepted", fillcolor="#399de5"] ;
130 -> 216 ;
217 [label="gini = 0.0\nsamples = 1118\nvalue = [0, 1799]\nclass = loan not accepted", fillcolor="#399de5"] ;
216 -> 217 ;
218 [label="Mortgage <= 191.5\ngini = 0.01\nsamples = 389\nvalue = [2, 602]\nclass = loan not accepted", fillcolor="#3a9de5"] ;
216 -> 218 ;
219 [label="gini = 0.0\nsamples = 1\nvalue = [2, 0]\nclass = loan accepted", fillcolor="#e58139"] ;
218 -> 219 ;
220 [label="gini = 0.0\nsamples = 388\nvalue = [0, 602]\nclass = loan not accepted", fillcolor="#399de5"] ;
218 -> 220 ;
}